export const brains = {
  'bestBrain-3':
    '{"levels":[{"inputs":[0,0,0,0.22811836300614508,0.5822606682844632],"outputs":[0,1,0,1,1,0],"biases":[0.08477521209706343,-0.1592310880986222,0.12508625734532208,0.07856418291502791,0.021249588275259253,0.1323285536204154],"weights":[[0.2328533187702627,0.045384558151727865,-0.05532896115438647,0.08441243189636342,0.24447924188722198,0.005317916539860473],[0.25505229894848125,0.19790170358485099,0.24328912452082263,0.23231525908743242,-0.04592567294644753,0.2303981935696194],[0.14153217290962752,0.05196431336142991,-0.05654456040410391,0.007901649088232376,-0.002329150300104534,0.3050343044645989],[-0.3103840795840323,0.09908511601592586,-0.1754149491534475,-0.06504403463466685,-0.1871916487396136,0.04351576153459315],[-0.13565642866640693,-0.2691046671253664,-0.0947481049064358,0.2179297384851253,0.32337167308599707,0.20230001634982792]]},{"inputs":[0,1,0,1,1,0],"outputs":[1,1,1,0],"biases":[0.04120212073112648,0.1851535993101302,-0.30564669182319076,0.018029220836311147],"weights":[[0.2435310168509214,-0.2027381792832949,0.1984591999578743,0.021440319045217284],[0.1508031444704292,0.2485591031238673,0.03070875666207189,-0.219589017796438],[0.0952350985607375,0.010265086740920306,-0.014993294313282092,0.05819600594483245],[0.07201901105472053,0.022309367564876028,-0.21839232575619924,-0.1567556598936964],[0.012585695321314056,0.1383680185424096,0.12542858150382932,-0.3069347980672739],[0.0833607005994425,-0.0549530865756534,-0.3223375079296808,0.08613877763321295]]}]}' as string,
  'bestBrain-4':
    '{"levels":[{"inputs":[0.13106049690717103,0,0,0,0.17188322824511504],"outputs":[0,1,0,1,1,0],"biases":[0.03817651068311519,-0.15599265705879067,0.13585326888707322,0.03376496994445265,0.031356334818881525,0.15270718661653854],"weights":[[0.16832329227253162,-0.026590407361737997,-0.13504437802892869,0.05416444805221627,0.26954046525543973,0.004385841303670134],[0.3048988623315127,0.21561437815595885,0.2806340687693676,0.2122301358591153,-0.05850977008584623,0.22425461892436507],[0.11351787408644817,0.04637225943757113,0.0021894052853998133,0.08266187685245413,-0.1001571854606255,0.4080834157482572],[-0.21495729352620044,0.18365875185877298,-0.216670726153465,-0.05133741240765794,-0.22053102287269163,0.13381294367555688],[-0.11147713568280535,-0.24074546663426272,-0.10628418581651689,0.1608449512945619,0.22912936512025991,0.14850677350744637]]},{"inputs":[0,1,0,1,1,0],"outputs":[1,1,1,0],"biases":[0.07978435055016023,0.08398512019491076,-0.17865874819664343,0.021005350789135988],"weights":[[0.23443088167830084,-0.2448534660335675,0.2635812200775588,0.052410368486938363],[0.17416023804850467,0.1913468693040837,0.09854267072105509,-0.27506593885635133],[0.1365616597926312,0.021351998346088558,-0.04641147900167136,0.15912887595774403],[0.018369234552824017,-0.03538265143390891,-0.1926454344905849,-0.1600788101254969],[0.07400675016662407,0.1539185357949134,0.18973628315083013,-0.3289330224748036],[0.04479086352692128,0.010614540305166228,-0.2939225353870714,0.08671683870389432]]}]}' as string,
  'bestBrain-5':
    '{"levels":[{"inputs":[0.15065876030040837,0,0,0,0.1522849648518777],"outputs":[0,1,0,1,1,0],"biases":[0.05052930037124061,-0.17196117478890516,0.16023195087440842,0.02788073805182617,0.011947139025558806,0.16752191751080076],"weights":[[0.1776080740833647,-0.012321440548869828,-0.1086984040634485,0.05478954197082474,0.2837508803018944,0.019179327470817645],[0.2998424754862092,0.19612179949452038,0.29237726328239144,0.2329800001806216,-0.06603350692619439,0.22622481465754804],[0.14627151268701624,0.04499095153298757,-0.007301561611689426,0.08526136930850828,-0.12026414529509105,0.4220973849126737],[-0.24286904349218125,0.17027572124788154,-0.19407670825093365,-0.0645982171155907,-0.2239006734713493,0.15967180466274253],[-0.13739997821886185,-0.26110041939590223,-0.09110296468115256,0.18733384551376048,0.23859033724103829,0.17063668839218898]]},{"inputs":[0,1,0,1,1,0],"outputs":[1,1,1,0],"biases":[0.09022266035114918,0.11944174130452319,-0.20538765482719124,0.012685224190658826],"weights":[[0.2518752568692644,-0.2431553459363813,0.273628173774271,0.057582067265349],[0.1798038020370725,0.20639637119267798,0.07983990077255237,-0.28631921625326934],[0.15541441085690008,0.03332293695229037,-0.05687986636491768,0.16108103841094343],[0.022388910854911202,-0.03743102065045953,-0.2060654477961181,-0.15946403801463493],[0.07939436720519663,0.16117688597561736,0.21327060134210069,-0.3417942779487916],[0.06238899372396173,0.016877494577864742,-0.2945588140758014,0.10975703917969316]]}]}' as string,
  'bestBrain-6':
    '{"levels":[{"inputs":[0.2863837726558994,0,0,0,0.01655995249638642],"outputs":[0,1,0,1,1,0],"biases":[0.05070497905782241,-0.20693378683211378,0.12593256087156796,-0.07889991266637196,-0.02906241359468614,0.017696916195869362],"weights":[[0.1655691489495002,-0.08779886770434091,-0.017531306940780093,-0.029801635382366267,0.2716296608812734,0.025464011060721697],[0.2822427021323586,0.19887255813450835,0.17784400486198984,0.15942746470185096,-0.023593681111644966,0.10543930268453128],[0.14121704892608417,-0.012120648747184647,-0.030955518286144613,0.10240809966087606,-0.04694935200796537,0.22022456579092595],[-0.1458166913096262,0.19330698884190148,-0.11614633295378152,-0.047183599772807894,-0.18496701509568253,0.24084246052463626],[-0.06166506050921751,-0.2538121176233167,-0.039860838773609214,0.16354978859725183,0.1748107719901184,0.08893284140997895]]},{"inputs":[0,1,0,1,1,0],"outputs":[1,1,1,0],"biases":[0.06322191704543145,0.09599985541119212,-0.11672958312659404,-0.021606612219677405],"weights":[[0.12686006870230473,-0.29530054949142565,0.1528474466663604,0.06720475322752996],[0.274556024417793,0.25870571938415354,0.1082947945911808,-0.12651886325336872],[0.23029289723787416,-0.07228697052466584,-0.12013771088121403,0.13397561780712222],[-0.02859316944816785,0.014505677900238746,-0.23990552392070014,-0.16878985542058936],[0.12168051925545235,0.08682386317883148,0.10680729511745983,-0.29689346887262624],[0.030354830971295838,0.02830211573001286,-0.17283553324565387,0.08149322109787714]]}]}' as string
} as { [key: string]: string };
