export const brains = {
  'bestBrain-3':
    '{"levels":[{"inputs":[0,0,0,0.22772341645619154,0.5820469247518623],"outputs":[0,1,0,1,1,0],"biases":[0.08477521209706343,-0.1592310880986222,0.12508625734532208,0.07856418291502791,0.021249588275259253,0.1323285536204154],"weights":[[0.2328533187702627,0.045384558151727865,-0.05532896115438647,0.08441243189636342,0.24447924188722198,0.005317916539860473],[0.25505229894848125,0.19790170358485099,0.24328912452082263,0.23231525908743242,-0.04592567294644753,0.2303981935696194],[0.14153217290962752,0.05196431336142991,-0.05654456040410391,0.007901649088232376,-0.002329150300104534,0.3050343044645989],[-0.3103840795840323,0.09908511601592586,-0.1754149491534475,-0.06504403463466685,-0.1871916487396136,0.04351576153459315],[-0.13565642866640693,-0.2691046671253664,-0.0947481049064358,0.2179297384851253,0.32337167308599707,0.20230001634982792]]},{"inputs":[0,1,0,1,1,0],"outputs":[1,1,1,0],"biases":[0.04120212073112648,0.1851535993101302,-0.30564669182319076,0.018029220836311147],"weights":[[0.2435310168509214,-0.2027381792832949,0.1984591999578743,0.021440319045217284],[0.1508031444704292,0.2485591031238673,0.03070875666207189,-0.219589017796438],[0.0952350985607375,0.010265086740920306,-0.014993294313282092,0.05819600594483245],[0.07201901105472053,0.022309367564876028,-0.21839232575619924,-0.1567556598936964],[0.012585695321314056,0.1383680185424096,0.12542858150382932,-0.3069347980672739],[0.0833607005994425,-0.0549530865756534,-0.3223375079296808,0.08613877763321295]]}]}' as string,
  'bestBrain-4':
    '{"levels":[{"inputs":[0.15065876030040837,0,0,0,0.1522849648518777],"outputs":[0,1,0,1,1,0],"biases":[0.05052930037124061,-0.17196117478890516,0.16023195087440842,0.02788073805182617,0.011947139025558806,0.16752191751080076],"weights":[[0.1776080740833647,-0.012321440548869828,-0.1086984040634485,0.05478954197082474,0.2837508803018944,0.019179327470817645],[0.2998424754862092,0.19612179949452038,0.29237726328239144,0.2329800001806216,-0.06603350692619439,0.22622481465754804],[0.14627151268701624,0.04499095153298757,-0.007301561611689426,0.08526136930850828,-0.12026414529509105,0.4220973849126737],[-0.24286904349218125,0.17027572124788154,-0.19407670825093365,-0.0645982171155907,-0.2239006734713493,0.15967180466274253],[-0.13739997821886185,-0.26110041939590223,-0.09110296468115256,0.18733384551376048,0.23859033724103829,0.17063668839218898]]},{"inputs":[0,1,0,1,1,0],"outputs":[1,1,1,0],"biases":[0.09022266035114918,0.11944174130452319,-0.20538765482719124,0.012685224190658826],"weights":[[0.2518752568692644,-0.2431553459363813,0.273628173774271,0.057582067265349],[0.1798038020370725,0.20639637119267798,0.07983990077255237,-0.28631921625326934],[0.15541441085690008,0.03332293695229037,-0.05687986636491768,0.16108103841094343],[0.022388910854911202,-0.03743102065045953,-0.2060654477961181,-0.15946403801463493],[0.07939436720519663,0.16117688597561736,0.21327060134210069,-0.3417942779487916],[0.06238899372396173,0.016877494577864742,-0.2945588140758014,0.10975703917969316]]}]}' as string,
  'bestBrain-5':
    '{"levels":[{"inputs":[0.15065876030040837,0,0,0,0.1522849648518777],"outputs":[0,1,0,1,1,0],"biases":[0.05052930037124061,-0.17196117478890516,0.16023195087440842,0.02788073805182617,0.011947139025558806,0.16752191751080076],"weights":[[0.1776080740833647,-0.012321440548869828,-0.1086984040634485,0.05478954197082474,0.2837508803018944,0.019179327470817645],[0.2998424754862092,0.19612179949452038,0.29237726328239144,0.2329800001806216,-0.06603350692619439,0.22622481465754804],[0.14627151268701624,0.04499095153298757,-0.007301561611689426,0.08526136930850828,-0.12026414529509105,0.4220973849126737],[-0.24286904349218125,0.17027572124788154,-0.19407670825093365,-0.0645982171155907,-0.2239006734713493,0.15967180466274253],[-0.13739997821886185,-0.26110041939590223,-0.09110296468115256,0.18733384551376048,0.23859033724103829,0.17063668839218898]]},{"inputs":[0,1,0,1,1,0],"outputs":[1,1,1,0],"biases":[0.09022266035114918,0.11944174130452319,-0.20538765482719124,0.012685224190658826],"weights":[[0.2518752568692644,-0.2431553459363813,0.273628173774271,0.057582067265349],[0.1798038020370725,0.20639637119267798,0.07983990077255237,-0.28631921625326934],[0.15541441085690008,0.03332293695229037,-0.05687986636491768,0.16108103841094343],[0.022388910854911202,-0.03743102065045953,-0.2060654477961181,-0.15946403801463493],[0.07939436720519663,0.16117688597561736,0.21327060134210069,-0.3417942779487916],[0.06238899372396173,0.016877494577864742,-0.2945588140758014,0.10975703917969316]]}]}' as string,
  'bestBrain-6':
    '{"levels":[{"inputs":[0.14721443728344308,0,0,0,0.15572928786884288],"outputs":[0,1,0,0,1,0],"biases":[0.042466115974576,-0.17969848486329026,0.16261858320840109,0.03718135626867369,0.008134950317429435,0.16053561594029506],"weights":[[0.17688326163881546,-0.009628257279210807,-0.10417958597992123,0.05807889517900558,0.28574523550534137,0.02456700768116822],[0.29423796672070746,0.20062291302065383,0.29730882113750334,0.23400914510121956,-0.07322223969784801,0.21557861686843738],[0.14247465923025487,0.049273881577265546,-0.00262272488061302,0.07587234547793512,-0.11824666511483051,0.41403238553845584],[-0.23186410497970034,0.17347934448902114,-0.18795900525641246,-0.06461035012875053,-0.22798073915110512,0.15167581861660517],[-0.12988250669217816,-0.26654663287053953,-0.09307705601634769,0.1822255748349081,0.2417815708443583,0.17000241621232348]]},{"inputs":[0,1,0,0,1,0],"outputs":[1,1,1,0],"biases":[0.0868977413644977,0.11834743209074146,-0.19633685526226297,0.019979912028611824],"weights":[[0.2509642956712344,-0.2471085576459021,0.26386109172400257,0.05043577897567469],[0.17458911455617065,0.20703320566805564,0.08858847320607086,-0.2919926411565236],[0.15920393324346432,0.03713235053395521,-0.062477200981677986,0.15741599657713237],[0.021004576882408314,-0.04180331120888951,-0.20168998569707605,-0.148764449198781],[0.07665609631109298,0.16819835039754658,0.21137537463723646,-0.3416997704218817],[0.06687208003438525,0.022598074271642562,-0.29601716684350876,0.10392596547289762]]}]}' as string,
} as { [key: string]: string };
